digraph Tree {
node [shape=box, style="filled, rounded", color="black", fontname=helvetica] ;
edge [fontname=helvetica] ;
0 [label="Cum GPA <= 3.16\ngini = 0.5\nsamples = 490\nvalue = [237, 253]\nclass = positive", fillcolor="#f2f9fd"] ;
1 [label="Cum GPA <= 2.99\ngini = 0.44\nsamples = 287\nvalue = [194, 93]\nclass = negative", fillcolor="#f1bd98"] ;
0 -> 1 [labeldistance=2.5, labelangle=45, headlabel="True"] ;
2 [label="TEAS Count <= 5.5\ngini = 0.39\nsamples = 208\nvalue = [153, 55]\nclass = negative", fillcolor="#eeae80"] ;
1 -> 2 ;
3 [label="MaxOfTestScore <= 75.0\ngini = 0.38\nsamples = 206\nvalue = [153, 53]\nclass = negative", fillcolor="#eead7e"] ;
2 -> 3 ;
4 [label="MaxOfTestScore <= 73.0\ngini = 0.33\nsamples = 147\nvalue = [116, 31]\nclass = negative", fillcolor="#eca36e"] ;
3 -> 4 ;
5 [label="MaxOfTestScore <= 72.35\ngini = 0.36\nsamples = 122\nvalue = [93, 29]\nclass = negative", fillcolor="#eda877"] ;
4 -> 5 ;
6 [label="Cum GPA <= 2.5\ngini = 0.35\nsamples = 117\nvalue = [91, 26]\nclass = negative", fillcolor="#eca572"] ;
5 -> 6 ;
7 [label="gini = 0.0\nsamples = 8\nvalue = [8, 0]\nclass = negative", fillcolor="#e58139"] ;
6 -> 7 ;
8 [label="Cum GPA <= 2.52\ngini = 0.36\nsamples = 109\nvalue = [83, 26]\nclass = negative", fillcolor="#eda877"] ;
6 -> 8 ;
9 [label="gini = 0.0\nsamples = 1\nvalue = [0, 1]\nclass = positive", fillcolor="#399de5"] ;
8 -> 9 ;
10 [label="failing grade count <= 0.5\ngini = 0.36\nsamples = 108\nvalue = [83, 25]\nclass = negative", fillcolor="#eda775"] ;
8 -> 10 ;
11 [label="Completion Time (days) <= 466.5\ngini = 0.4\nsamples = 77\nvalue = [56, 21]\nclass = negative", fillcolor="#efb083"] ;
10 -> 11 ;
12 [label="gini = 0.0\nsamples = 12\nvalue = [12, 0]\nclass = negative", fillcolor="#e58139"] ;
11 -> 12 ;
13 [label="Cum GPA <= 2.94\ngini = 0.44\nsamples = 65\nvalue = [44, 21]\nclass = negative", fillcolor="#f1bd98"] ;
11 -> 13 ;
14 [label="Cum GPA <= 2.92\ngini = 0.46\nsamples = 56\nvalue = [36, 20]\nclass = negative", fillcolor="#f3c7a7"] ;
13 -> 14 ;
15 [label="Time to Test (days) <= 163.5\ngini = 0.43\nsamples = 51\nvalue = [35, 16]\nclass = negative", fillcolor="#f1bb94"] ;
14 -> 15 ;
16 [label="Time to Test (days) <= 138.0\ngini = 0.46\nsamples = 44\nvalue = [28, 16]\nclass = negative", fillcolor="#f4c9aa"] ;
15 -> 16 ;
17 [label="Cum GPA <= 2.78\ngini = 0.44\nsamples = 40\nvalue = [27, 13]\nclass = negative", fillcolor="#f2be98"] ;
16 -> 17 ;
18 [label="Cum GPA <= 2.7\ngini = 0.38\nsamples = 28\nvalue = [21, 7]\nclass = negative", fillcolor="#eeab7b"] ;
17 -> 18 ;
19 [label="Cum GPA <= 2.67\ngini = 0.47\nsamples = 19\nvalue = [12, 7]\nclass = negative", fillcolor="#f4caac"] ;
18 -> 19 ;
20 [label="MaxOfTestScore <= 69.65\ngini = 0.42\nsamples = 17\nvalue = [12, 5]\nclass = negative", fillcolor="#f0b58b"] ;
19 -> 20 ;
21 [label="MaxOfTestScore <= 64.35\ngini = 0.26\nsamples = 13\nvalue = [11, 2]\nclass = negative", fillcolor="#ea985d"] ;
20 -> 21 ;
22 [label="gini = 0.0\nsamples = 1\nvalue = [0, 1]\nclass = positive", fillcolor="#399de5"] ;
21 -> 22 ;
23 [label="Cum GPA <= 2.66\ngini = 0.15\nsamples = 12\nvalue = [11, 1]\nclass = negative", fillcolor="#e78c4b"] ;
21 -> 23 ;
24 [label="gini = 0.0\nsamples = 10\nvalue = [10, 0]\nclass = negative", fillcolor="#e58139"] ;
23 -> 24 ;
25 [label="MaxOfTestScore <= 69.0\ngini = 0.5\nsamples = 2\nvalue = [1, 1]\nclass = negative", fillcolor="#ffffff"] ;
23 -> 25 ;
26 [label="gini = 0.0\nsamples = 1\nvalue = [0, 1]\nclass = positive", fillcolor="#399de5"] ;
25 -> 26 ;
27 [label="gini = 0.0\nsamples = 1\nvalue = [1, 0]\nclass = negative", fillcolor="#e58139"] ;
25 -> 27 ;
28 [label="HighSchool <= 0.5\ngini = 0.38\nsamples = 4\nvalue = [1, 3]\nclass = positive", fillcolor="#7bbeee"] ;
20 -> 28 ;
29 [label="gini = 0.0\nsamples = 1\nvalue = [1, 0]\nclass = negative", fillcolor="#e58139"] ;
28 -> 29 ;
30 [label="gini = 0.0\nsamples = 3\nvalue = [0, 3]\nclass = positive", fillcolor="#399de5"] ;
28 -> 30 ;
31 [label="gini = 0.0\nsamples = 2\nvalue = [0, 2]\nclass = positive", fillcolor="#399de5"] ;
19 -> 31 ;
32 [label="gini = 0.0\nsamples = 9\nvalue = [9, 0]\nclass = negative", fillcolor="#e58139"] ;
18 -> 32 ;
33 [label="Completion Time (days) <= 592.0\ngini = 0.5\nsamples = 12\nvalue = [6, 6]\nclass = negative", fillcolor="#ffffff"] ;
17 -> 33 ;
34 [label="Cum GPA <= 2.91\ngini = 0.44\nsamples = 9\nvalue = [6, 3]\nclass = negative", fillcolor="#f2c09c"] ;
33 -> 34 ;
35 [label="Completion Time (days) <= 584.5\ngini = 0.48\nsamples = 5\nvalue = [2, 3]\nclass = positive", fillcolor="#bddef6"] ;
34 -> 35 ;
36 [label="Completion Time (days) <= 469.5\ngini = 0.44\nsamples = 3\nvalue = [2, 1]\nclass = negative", fillcolor="#f2c09c"] ;
35 -> 36 ;
37 [label="gini = 0.0\nsamples = 1\nvalue = [0, 1]\nclass = positive", fillcolor="#399de5"] ;
36 -> 37 ;
38 [label="gini = 0.0\nsamples = 2\nvalue = [2, 0]\nclass = negative", fillcolor="#e58139"] ;
36 -> 38 ;
39 [label="gini = 0.0\nsamples = 2\nvalue = [0, 2]\nclass = positive", fillcolor="#399de5"] ;
35 -> 39 ;
40 [label="gini = 0.0\nsamples = 4\nvalue = [4, 0]\nclass = negative", fillcolor="#e58139"] ;
34 -> 40 ;
41 [label="gini = 0.0\nsamples = 3\nvalue = [0, 3]\nclass = positive", fillcolor="#399de5"] ;
33 -> 41 ;
42 [label="TEAS Count <= 1.5\ngini = 0.38\nsamples = 4\nvalue = [1, 3]\nclass = positive", fillcolor="#7bbeee"] ;
16 -> 42 ;
43 [label="gini = 0.0\nsamples = 1\nvalue = [1, 0]\nclass = negative", fillcolor="#e58139"] ;
42 -> 43 ;
44 [label="gini = 0.0\nsamples = 3\nvalue = [0, 3]\nclass = positive", fillcolor="#399de5"] ;
42 -> 44 ;
45 [label="gini = 0.0\nsamples = 7\nvalue = [7, 0]\nclass = negative", fillcolor="#e58139"] ;
15 -> 45 ;
46 [label="Completion Time (days) <= 470.0\ngini = 0.32\nsamples = 5\nvalue = [1, 4]\nclass = positive", fillcolor="#6ab6ec"] ;
14 -> 46 ;
47 [label="MaxOfTestScore <= 70.35\ngini = 0.5\nsamples = 2\nvalue = [1, 1]\nclass = negative", fillcolor="#ffffff"] ;
46 -> 47 ;
48 [label="gini = 0.0\nsamples = 1\nvalue = [1, 0]\nclass = negative", fillcolor="#e58139"] ;
47 -> 48 ;
49 [label="gini = 0.0\nsamples = 1\nvalue = [0, 1]\nclass = positive", fillcolor="#399de5"] ;
47 -> 49 ;
50 [label="gini = 0.0\nsamples = 3\nvalue = [0, 3]\nclass = positive", fillcolor="#399de5"] ;
46 -> 50 ;
51 [label="Completion Time (days) <= 469.5\ngini = 0.2\nsamples = 9\nvalue = [8, 1]\nclass = negative", fillcolor="#e89152"] ;
13 -> 51 ;
52 [label="TEAS Count <= 2.5\ngini = 0.5\nsamples = 2\nvalue = [1, 1]\nclass = negative", fillcolor="#ffffff"] ;
51 -> 52 ;
53 [label="gini = 0.0\nsamples = 1\nvalue = [0, 1]\nclass = positive", fillcolor="#399de5"] ;
52 -> 53 ;
54 [label="gini = 0.0\nsamples = 1\nvalue = [1, 0]\nclass = negative", fillcolor="#e58139"] ;
52 -> 54 ;
55 [label="gini = 0.0\nsamples = 7\nvalue = [7, 0]\nclass = negative", fillcolor="#e58139"] ;
51 -> 55 ;
56 [label="Time to Test (days) <= 113.66\ngini = 0.22\nsamples = 31\nvalue = [27, 4]\nclass = negative", fillcolor="#e99456"] ;
10 -> 56 ;
57 [label="gini = 0.0\nsamples = 12\nvalue = [12, 0]\nclass = negative", fillcolor="#e58139"] ;
56 -> 57 ;
58 [label="Time to Test (days) <= 120.67\ngini = 0.33\nsamples = 19\nvalue = [15, 4]\nclass = negative", fillcolor="#eca36e"] ;
56 -> 58 ;
59 [label="gini = 0.0\nsamples = 2\nvalue = [0, 2]\nclass = positive", fillcolor="#399de5"] ;
58 -> 59 ;
60 [label="Completion Time (days) <= 522.0\ngini = 0.21\nsamples = 17\nvalue = [15, 2]\nclass = negative", fillcolor="#e89253"] ;
58 -> 60 ;
61 [label="gini = 0.0\nsamples = 1\nvalue = [0, 1]\nclass = positive", fillcolor="#399de5"] ;
60 -> 61 ;
62 [label="Completion Time (days) <= 714.5\ngini = 0.12\nsamples = 16\nvalue = [15, 1]\nclass = negative", fillcolor="#e78946"] ;
60 -> 62 ;
63 [label="gini = 0.0\nsamples = 14\nvalue = [14, 0]\nclass = negative", fillcolor="#e58139"] ;
62 -> 63 ;
64 [label="Time to Test (days) <= 278.22\ngini = 0.5\nsamples = 2\nvalue = [1, 1]\nclass = negative", fillcolor="#ffffff"] ;
62 -> 64 ;
65 [label="gini = 0.0\nsamples = 1\nvalue = [0, 1]\nclass = positive", fillcolor="#399de5"] ;
64 -> 65 ;
66 [label="gini = 0.0\nsamples = 1\nvalue = [1, 0]\nclass = negative", fillcolor="#e58139"] ;
64 -> 66 ;
67 [label="Time to Test (days) <= 93.0\ngini = 0.48\nsamples = 5\nvalue = [2, 3]\nclass = positive", fillcolor="#bddef6"] ;
5 -> 67 ;
68 [label="gini = 0.0\nsamples = 2\nvalue = [2, 0]\nclass = negative", fillcolor="#e58139"] ;
67 -> 68 ;
69 [label="gini = 0.0\nsamples = 3\nvalue = [0, 3]\nclass = positive", fillcolor="#399de5"] ;
67 -> 69 ;
70 [label="Cum GPA <= 2.53\ngini = 0.15\nsamples = 25\nvalue = [23, 2]\nclass = negative", fillcolor="#e78c4a"] ;
4 -> 70 ;
71 [label="gini = 0.0\nsamples = 1\nvalue = [0, 1]\nclass = positive", fillcolor="#399de5"] ;
70 -> 71 ;
72 [label="Completion Time (days) <= 465.5\ngini = 0.08\nsamples = 24\nvalue = [23, 1]\nclass = negative", fillcolor="#e68642"] ;
70 -> 72 ;
73 [label="Cum GPA <= 2.82\ngini = 0.44\nsamples = 3\nvalue = [2, 1]\nclass = negative", fillcolor="#f2c09c"] ;
72 -> 73 ;
74 [label="gini = 0.0\nsamples = 2\nvalue = [2, 0]\nclass = negative", fillcolor="#e58139"] ;
73 -> 74 ;
75 [label="gini = 0.0\nsamples = 1\nvalue = [0, 1]\nclass = positive", fillcolor="#399de5"] ;
73 -> 75 ;
76 [label="gini = 0.0\nsamples = 21\nvalue = [21, 0]\nclass = negative", fillcolor="#e58139"] ;
72 -> 76 ;
77 [label="Time to Test (days) <= 52.45\ngini = 0.47\nsamples = 59\nvalue = [37, 22]\nclass = negative", fillcolor="#f4ccaf"] ;
3 -> 77 ;
78 [label="gini = 0.0\nsamples = 5\nvalue = [0, 5]\nclass = positive", fillcolor="#399de5"] ;
77 -> 78 ;
79 [label="TEAS Count <= 1.5\ngini = 0.43\nsamples = 54\nvalue = [37, 17]\nclass = negative", fillcolor="#f1bb94"] ;
77 -> 79 ;
80 [label="Completion Time (days) <= 466.5\ngini = 0.48\nsamples = 35\nvalue = [21, 14]\nclass = negative", fillcolor="#f6d5bd"] ;
79 -> 80 ;
81 [label="gini = 0.0\nsamples = 6\nvalue = [6, 0]\nclass = negative", fillcolor="#e58139"] ;
80 -> 81 ;
82 [label="Bach <= 0.5\ngini = 0.5\nsamples = 29\nvalue = [15, 14]\nclass = negative", fillcolor="#fdf7f2"] ;
80 -> 82 ;
83 [label="Time to Test (days) <= 148.26\ngini = 0.49\nsamples = 26\nvalue = [15, 11]\nclass = negative", fillcolor="#f8ddca"] ;
82 -> 83 ;
84 [label="Cum GPA <= 2.84\ngini = 0.5\nsamples = 22\nvalue = [11, 11]\nclass = negative", fillcolor="#ffffff"] ;
83 -> 84 ;
85 [label="Time to Test (days) <= 142.0\ngini = 0.48\nsamples = 17\nvalue = [7, 10]\nclass = positive", fillcolor="#c4e2f7"] ;
84 -> 85 ;
86 [label="Cum GPA <= 2.61\ngini = 0.5\nsamples = 15\nvalue = [7, 8]\nclass = positive", fillcolor="#e6f3fc"] ;
85 -> 86 ;
87 [label="Cum GPA <= 2.35\ngini = 0.38\nsamples = 4\nvalue = [3, 1]\nclass = negative", fillcolor="#eeab7b"] ;
86 -> 87 ;
88 [label="gini = 0.0\nsamples = 1\nvalue = [0, 1]\nclass = positive", fillcolor="#399de5"] ;
87 -> 88 ;
89 [label="gini = 0.0\nsamples = 3\nvalue = [3, 0]\nclass = negative", fillcolor="#e58139"] ;
87 -> 89 ;
90 [label="MaxOfTestScore <= 85.0\ngini = 0.46\nsamples = 11\nvalue = [4, 7]\nclass = positive", fillcolor="#aad5f4"] ;
86 -> 90 ;
91 [label="Time to Test (days) <= 105.42\ngini = 0.42\nsamples = 10\nvalue = [3, 7]\nclass = positive", fillcolor="#8ec7f0"] ;
90 -> 91 ;
92 [label="Completion Time (days) <= 473.0\ngini = 0.24\nsamples = 7\nvalue = [1, 6]\nclass = positive", fillcolor="#5aade9"] ;
91 -> 92 ;
93 [label="Completion Time (days) <= 469.5\ngini = 0.5\nsamples = 2\nvalue = [1, 1]\nclass = negative", fillcolor="#ffffff"] ;
92 -> 93 ;
94 [label="gini = 0.0\nsamples = 1\nvalue = [0, 1]\nclass = positive", fillcolor="#399de5"] ;
93 -> 94 ;
95 [label="gini = 0.0\nsamples = 1\nvalue = [1, 0]\nclass = negative", fillcolor="#e58139"] ;
93 -> 95 ;
96 [label="gini = 0.0\nsamples = 5\nvalue = [0, 5]\nclass = positive", fillcolor="#399de5"] ;
92 -> 96 ;
97 [label="Time to Test (days) <= 119.67\ngini = 0.44\nsamples = 3\nvalue = [2, 1]\nclass = negative", fillcolor="#f2c09c"] ;
91 -> 97 ;
98 [label="gini = 0.0\nsamples = 2\nvalue = [2, 0]\nclass = negative", fillcolor="#e58139"] ;
97 -> 98 ;
99 [label="gini = 0.0\nsamples = 1\nvalue = [0, 1]\nclass = positive", fillcolor="#399de5"] ;
97 -> 99 ;
100 [label="gini = 0.0\nsamples = 1\nvalue = [1, 0]\nclass = negative", fillcolor="#e58139"] ;
90 -> 100 ;
101 [label="gini = 0.0\nsamples = 2\nvalue = [0, 2]\nclass = positive", fillcolor="#399de5"] ;
85 -> 101 ;
102 [label="Completion Time (days) <= 476.5\ngini = 0.32\nsamples = 5\nvalue = [4, 1]\nclass = negative", fillcolor="#eca06a"] ;
84 -> 102 ;
103 [label="gini = 0.0\nsamples = 1\nvalue = [0, 1]\nclass = positive", fillcolor="#399de5"] ;
102 -> 103 ;
104 [label="gini = 0.0\nsamples = 4\nvalue = [4, 0]\nclass = negative", fillcolor="#e58139"] ;
102 -> 104 ;
105 [label="gini = 0.0\nsamples = 4\nvalue = [4, 0]\nclass = negative", fillcolor="#e58139"] ;
83 -> 105 ;
106 [label="gini = 0.0\nsamples = 3\nvalue = [0, 3]\nclass = positive", fillcolor="#399de5"] ;
82 -> 106 ;
107 [label="Completion Time (days) <= 466.5\ngini = 0.27\nsamples = 19\nvalue = [16, 3]\nclass = negative", fillcolor="#ea995e"] ;
79 -> 107 ;
108 [label="Cum GPA <= 2.8\ngini = 0.49\nsamples = 7\nvalue = [4, 3]\nclass = negative", fillcolor="#f8e0ce"] ;
107 -> 108 ;
109 [label="gini = 0.0\nsamples = 1\nvalue = [0, 1]\nclass = positive", fillcolor="#399de5"] ;
108 -> 109 ;
110 [label="MaxOfTestScore <= 75.65\ngini = 0.44\nsamples = 6\nvalue = [4, 2]\nclass = negative", fillcolor="#f2c09c"] ;
108 -> 110 ;
111 [label="gini = 0.0\nsamples = 1\nvalue = [0, 1]\nclass = positive", fillcolor="#399de5"] ;
110 -> 111 ;
112 [label="Time to Test (days) <= 57.66\ngini = 0.32\nsamples = 5\nvalue = [4, 1]\nclass = negative", fillcolor="#eca06a"] ;
110 -> 112 ;
113 [label="gini = 0.0\nsamples = 1\nvalue = [0, 1]\nclass = positive", fillcolor="#399de5"] ;
112 -> 113 ;
114 [label="gini = 0.0\nsamples = 4\nvalue = [4, 0]\nclass = negative", fillcolor="#e58139"] ;
112 -> 114 ;
115 [label="gini = 0.0\nsamples = 12\nvalue = [12, 0]\nclass = negative", fillcolor="#e58139"] ;
107 -> 115 ;
116 [label="gini = 0.0\nsamples = 2\nvalue = [0, 2]\nclass = positive", fillcolor="#399de5"] ;
2 -> 116 ;
117 [label="Time to Test (days) <= 104.78\ngini = 0.5\nsamples = 79\nvalue = [41, 38]\nclass = negative", fillcolor="#fdf6f1"] ;
1 -> 117 ;
118 [label="Time to Test (days) <= 54.96\ngini = 0.49\nsamples = 55\nvalue = [24, 31]\nclass = positive", fillcolor="#d2e9f9"] ;
117 -> 118 ;
119 [label="TEAS Count <= 1.5\ngini = 0.41\nsamples = 14\nvalue = [10, 4]\nclass = negative", fillcolor="#efb388"] ;
118 -> 119 ;
120 [label="MaxOfTestScore <= 71.0\ngini = 0.28\nsamples = 12\nvalue = [10, 2]\nclass = negative", fillcolor="#ea9a61"] ;
119 -> 120 ;
121 [label="Completion Time (days) <= 463.0\ngini = 0.44\nsamples = 3\nvalue = [1, 2]\nclass = positive", fillcolor="#9ccef2"] ;
120 -> 121 ;
122 [label="gini = 0.0\nsamples = 1\nvalue = [1, 0]\nclass = negative", fillcolor="#e58139"] ;
121 -> 122 ;
123 [label="gini = 0.0\nsamples = 2\nvalue = [0, 2]\nclass = positive", fillcolor="#399de5"] ;
121 -> 123 ;
124 [label="gini = 0.0\nsamples = 9\nvalue = [9, 0]\nclass = negative", fillcolor="#e58139"] ;
120 -> 124 ;
125 [label="gini = 0.0\nsamples = 2\nvalue = [0, 2]\nclass = positive", fillcolor="#399de5"] ;
119 -> 125 ;
126 [label="Completion Time (days) <= 596.5\ngini = 0.45\nsamples = 41\nvalue = [14, 27]\nclass = positive", fillcolor="#a0d0f2"] ;
118 -> 126 ;
127 [label="Cum GPA <= 3.01\ngini = 0.39\nsamples = 37\nvalue = [10, 27]\nclass = positive", fillcolor="#82c1ef"] ;
126 -> 127 ;
128 [label="MaxOfTestScore <= 72.35\ngini = 0.49\nsamples = 7\nvalue = [4, 3]\nclass = negative", fillcolor="#f8e0ce"] ;
127 -> 128 ;
129 [label="gini = 0.0\nsamples = 3\nvalue = [3, 0]\nclass = negative", fillcolor="#e58139"] ;
128 -> 129 ;
130 [label="Time to Test (days) <= 59.03\ngini = 0.38\nsamples = 4\nvalue = [1, 3]\nclass = positive", fillcolor="#7bbeee"] ;
128 -> 130 ;
131 [label="gini = 0.0\nsamples = 1\nvalue = [1, 0]\nclass = negative", fillcolor="#e58139"] ;
130 -> 131 ;
132 [label="gini = 0.0\nsamples = 3\nvalue = [0, 3]\nclass = positive", fillcolor="#399de5"] ;
130 -> 132 ;
133 [label="MaxOfTestScore <= 74.35\ngini = 0.32\nsamples = 30\nvalue = [6, 24]\nclass = positive", fillcolor="#6ab6ec"] ;
127 -> 133 ;
134 [label="Cum GPA <= 3.02\ngini = 0.12\nsamples = 15\nvalue = [1, 14]\nclass = positive", fillcolor="#47a4e7"] ;
133 -> 134 ;
135 [label="Completion Time (days) <= 522.0\ngini = 0.32\nsamples = 5\nvalue = [1, 4]\nclass = positive", fillcolor="#6ab6ec"] ;
134 -> 135 ;
136 [label="TEAS Count <= 1.5\ngini = 0.5\nsamples = 2\nvalue = [1, 1]\nclass = negative", fillcolor="#ffffff"] ;
135 -> 136 ;
137 [label="gini = 0.0\nsamples = 1\nvalue = [0, 1]\nclass = positive", fillcolor="#399de5"] ;
136 -> 137 ;
138 [label="gini = 0.0\nsamples = 1\nvalue = [1, 0]\nclass = negative", fillcolor="#e58139"] ;
136 -> 138 ;
139 [label="gini = 0.0\nsamples = 3\nvalue = [0, 3]\nclass = positive", fillcolor="#399de5"] ;
135 -> 139 ;
140 [label="gini = 0.0\nsamples = 10\nvalue = [0, 10]\nclass = positive", fillcolor="#399de5"] ;
134 -> 140 ;
141 [label="Cum GPA <= 3.11\ngini = 0.44\nsamples = 15\nvalue = [5, 10]\nclass = positive", fillcolor="#9ccef2"] ;
133 -> 141 ;
142 [label="MaxOfTestScore <= 83.65\ngini = 0.22\nsamples = 8\nvalue = [1, 7]\nclass = positive", fillcolor="#55abe9"] ;
141 -> 142 ;
143 [label="gini = 0.0\nsamples = 6\nvalue = [0, 6]\nclass = positive", fillcolor="#399de5"] ;
142 -> 143 ;
144 [label="Bach <= 0.5\ngini = 0.5\nsamples = 2\nvalue = [1, 1]\nclass = negative", fillcolor="#ffffff"] ;
142 -> 144 ;
145 [label="gini = 0.0\nsamples = 1\nvalue = [1, 0]\nclass = negative", fillcolor="#e58139"] ;
144 -> 145 ;
146 [label="gini = 0.0\nsamples = 1\nvalue = [0, 1]\nclass = positive", fillcolor="#399de5"] ;
144 -> 146 ;
147 [label="MaxOfTestScore <= 79.35\ngini = 0.49\nsamples = 7\nvalue = [4, 3]\nclass = negative", fillcolor="#f8e0ce"] ;
141 -> 147 ;
148 [label="MaxOfTestScore <= 75.35\ngini = 0.32\nsamples = 5\nvalue = [4, 1]\nclass = negative", fillcolor="#eca06a"] ;
147 -> 148 ;
149 [label="Cum GPA <= 3.13\ngini = 0.5\nsamples = 2\nvalue = [1, 1]\nclass = negative", fillcolor="#ffffff"] ;
148 -> 149 ;
150 [label="gini = 0.0\nsamples = 1\nvalue = [1, 0]\nclass = negative", fillcolor="#e58139"] ;
149 -> 150 ;
151 [label="gini = 0.0\nsamples = 1\nvalue = [0, 1]\nclass = positive", fillcolor="#399de5"] ;
149 -> 151 ;
152 [label="gini = 0.0\nsamples = 3\nvalue = [3, 0]\nclass = negative", fillcolor="#e58139"] ;
148 -> 152 ;
153 [label="gini = 0.0\nsamples = 2\nvalue = [0, 2]\nclass = positive", fillcolor="#399de5"] ;
147 -> 153 ;
154 [label="gini = 0.0\nsamples = 4\nvalue = [4, 0]\nclass = negative", fillcolor="#e58139"] ;
126 -> 154 ;
155 [label="Cum GPA <= 3.11\ngini = 0.41\nsamples = 24\nvalue = [17, 7]\nclass = negative", fillcolor="#f0b58b"] ;
117 -> 155 ;
156 [label="Time to Test (days) <= 172.0\ngini = 0.48\nsamples = 18\nvalue = [11, 7]\nclass = negative", fillcolor="#f6d1b7"] ;
155 -> 156 ;
157 [label="TEAS Count <= 2.5\ngini = 0.38\nsamples = 12\nvalue = [9, 3]\nclass = negative", fillcolor="#eeab7b"] ;
156 -> 157 ;
158 [label="MaxOfTestScore <= 71.7\ngini = 0.3\nsamples = 11\nvalue = [9, 2]\nclass = negative", fillcolor="#eb9d65"] ;
157 -> 158 ;
159 [label="gini = 0.0\nsamples = 6\nvalue = [6, 0]\nclass = negative", fillcolor="#e58139"] ;
158 -> 159 ;
160 [label="Cum GPA <= 3.08\ngini = 0.48\nsamples = 5\nvalue = [3, 2]\nclass = negative", fillcolor="#f6d5bd"] ;
158 -> 160 ;
161 [label="gini = 0.0\nsamples = 2\nvalue = [2, 0]\nclass = negative", fillcolor="#e58139"] ;
160 -> 161 ;
162 [label="Completion Time (days) <= 536.0\ngini = 0.44\nsamples = 3\nvalue = [1, 2]\nclass = positive", fillcolor="#9ccef2"] ;
160 -> 162 ;
163 [label="gini = 0.0\nsamples = 1\nvalue = [0, 1]\nclass = positive", fillcolor="#399de5"] ;
162 -> 163 ;
164 [label="Time to Test (days) <= 120.0\ngini = 0.5\nsamples = 2\nvalue = [1, 1]\nclass = negative", fillcolor="#ffffff"] ;
162 -> 164 ;
165 [label="gini = 0.0\nsamples = 1\nvalue = [1, 0]\nclass = negative", fillcolor="#e58139"] ;
164 -> 165 ;
166 [label="gini = 0.0\nsamples = 1\nvalue = [0, 1]\nclass = positive", fillcolor="#399de5"] ;
164 -> 166 ;
167 [label="gini = 0.0\nsamples = 1\nvalue = [0, 1]\nclass = positive", fillcolor="#399de5"] ;
157 -> 167 ;
168 [label="Time to Test (days) <= 275.17\ngini = 0.44\nsamples = 6\nvalue = [2, 4]\nclass = positive", fillcolor="#9ccef2"] ;
156 -> 168 ;
169 [label="gini = 0.0\nsamples = 4\nvalue = [0, 4]\nclass = positive", fillcolor="#399de5"] ;
168 -> 169 ;
170 [label="gini = 0.0\nsamples = 2\nvalue = [2, 0]\nclass = negative", fillcolor="#e58139"] ;
168 -> 170 ;
171 [label="gini = 0.0\nsamples = 6\nvalue = [6, 0]\nclass = negative", fillcolor="#e58139"] ;
155 -> 171 ;
172 [label="Time to Test (days) <= 106.0\ngini = 0.33\nsamples = 203\nvalue = [43, 160]\nclass = positive", fillcolor="#6eb7ec"] ;
0 -> 172 [labeldistance=2.5, labelangle=-45, headlabel="False"] ;
173 [label="Cum GPA <= 3.29\ngini = 0.25\nsamples = 174\nvalue = [25, 149]\nclass = positive", fillcolor="#5aade9"] ;
172 -> 173 ;
174 [label="TEAS Count <= 2.5\ngini = 0.42\nsamples = 47\nvalue = [14, 33]\nclass = positive", fillcolor="#8dc7f0"] ;
173 -> 174 ;
175 [label="Completion Time (days) <= 585.5\ngini = 0.36\nsamples = 42\nvalue = [10, 32]\nclass = positive", fillcolor="#77bced"] ;
174 -> 175 ;
176 [label="MaxOfTestScore <= 69.65\ngini = 0.31\nsamples = 37\nvalue = [7, 30]\nclass = positive", fillcolor="#67b4eb"] ;
175 -> 176 ;
177 [label="MaxOfTestScore <= 68.35\ngini = 0.5\nsamples = 8\nvalue = [4, 4]\nclass = negative", fillcolor="#ffffff"] ;
176 -> 177 ;
178 [label="gini = 0.0\nsamples = 4\nvalue = [0, 4]\nclass = positive", fillcolor="#399de5"] ;
177 -> 178 ;
179 [label="gini = 0.0\nsamples = 4\nvalue = [4, 0]\nclass = negative", fillcolor="#e58139"] ;
177 -> 179 ;
180 [label="MaxOfTestScore <= 79.05\ngini = 0.19\nsamples = 29\nvalue = [3, 26]\nclass = positive", fillcolor="#50a8e8"] ;
176 -> 180 ;
181 [label="gini = 0.0\nsamples = 16\nvalue = [0, 16]\nclass = positive", fillcolor="#399de5"] ;
180 -> 181 ;
182 [label="MaxOfTestScore <= 80.3\ngini = 0.36\nsamples = 13\nvalue = [3, 10]\nclass = positive", fillcolor="#74baed"] ;
180 -> 182 ;
183 [label="Time to Test (days) <= 46.94\ngini = 0.44\nsamples = 3\nvalue = [2, 1]\nclass = negative", fillcolor="#f2c09c"] ;
182 -> 183 ;
184 [label="gini = 0.0\nsamples = 1\nvalue = [0, 1]\nclass = positive", fillcolor="#399de5"] ;
183 -> 184 ;
185 [label="gini = 0.0\nsamples = 2\nvalue = [2, 0]\nclass = negative", fillcolor="#e58139"] ;
183 -> 185 ;
186 [label="MaxOfTestScore <= 86.35\ngini = 0.18\nsamples = 10\nvalue = [1, 9]\nclass = positive", fillcolor="#4fa8e8"] ;
182 -> 186 ;
187 [label="gini = 0.0\nsamples = 7\nvalue = [0, 7]\nclass = positive", fillcolor="#399de5"] ;
186 -> 187 ;
188 [label="Cum GPA <= 3.23\ngini = 0.44\nsamples = 3\nvalue = [1, 2]\nclass = positive", fillcolor="#9ccef2"] ;
186 -> 188 ;
189 [label="gini = 0.0\nsamples = 2\nvalue = [0, 2]\nclass = positive", fillcolor="#399de5"] ;
188 -> 189 ;
190 [label="gini = 0.0\nsamples = 1\nvalue = [1, 0]\nclass = negative", fillcolor="#e58139"] ;
188 -> 190 ;
191 [label="Cum GPA <= 3.28\ngini = 0.48\nsamples = 5\nvalue = [3, 2]\nclass = negative", fillcolor="#f6d5bd"] ;
175 -> 191 ;
192 [label="Completion Time (days) <= 656.0\ngini = 0.44\nsamples = 3\nvalue = [1, 2]\nclass = positive", fillcolor="#9ccef2"] ;
191 -> 192 ;
193 [label="gini = 0.0\nsamples = 2\nvalue = [0, 2]\nclass = positive", fillcolor="#399de5"] ;
192 -> 193 ;
194 [label="gini = 0.0\nsamples = 1\nvalue = [1, 0]\nclass = negative", fillcolor="#e58139"] ;
192 -> 194 ;
195 [label="gini = 0.0\nsamples = 2\nvalue = [2, 0]\nclass = negative", fillcolor="#e58139"] ;
191 -> 195 ;
196 [label="MaxOfTestScore <= 69.0\ngini = 0.32\nsamples = 5\nvalue = [4, 1]\nclass = negative", fillcolor="#eca06a"] ;
174 -> 196 ;
197 [label="gini = 0.0\nsamples = 1\nvalue = [0, 1]\nclass = positive", fillcolor="#399de5"] ;
196 -> 197 ;
198 [label="gini = 0.0\nsamples = 4\nvalue = [4, 0]\nclass = negative", fillcolor="#e58139"] ;
196 -> 198 ;
199 [label="Time to Test (days) <= 27.26\ngini = 0.16\nsamples = 127\nvalue = [11, 116]\nclass = positive", fillcolor="#4ca6e7"] ;
173 -> 199 ;
200 [label="Completion Time (days) <= 540.5\ngini = 0.5\nsamples = 2\nvalue = [1, 1]\nclass = negative", fillcolor="#ffffff"] ;
199 -> 200 ;
201 [label="gini = 0.0\nsamples = 1\nvalue = [0, 1]\nclass = positive", fillcolor="#399de5"] ;
200 -> 201 ;
202 [label="gini = 0.0\nsamples = 1\nvalue = [1, 0]\nclass = negative", fillcolor="#e58139"] ;
200 -> 202 ;
203 [label="Cum GPA <= 3.48\ngini = 0.15\nsamples = 125\nvalue = [10, 115]\nclass = positive", fillcolor="#4aa6e7"] ;
199 -> 203 ;
204 [label="Completion Time (days) <= 582.0\ngini = 0.24\nsamples = 56\nvalue = [8, 48]\nclass = positive", fillcolor="#5aade9"] ;
203 -> 204 ;
205 [label="Time to Test (days) <= 50.83\ngini = 0.15\nsamples = 36\nvalue = [3, 33]\nclass = positive", fillcolor="#4ba6e7"] ;
204 -> 205 ;
206 [label="Completion Time (days) <= 469.0\ngini = 0.44\nsamples = 6\nvalue = [2, 4]\nclass = positive", fillcolor="#9ccef2"] ;
205 -> 206 ;
207 [label="gini = 0.0\nsamples = 2\nvalue = [2, 0]\nclass = negative", fillcolor="#e58139"] ;
206 -> 207 ;
208 [label="gini = 0.0\nsamples = 4\nvalue = [0, 4]\nclass = positive", fillcolor="#399de5"] ;
206 -> 208 ;
209 [label="Cum GPA <= 3.46\ngini = 0.06\nsamples = 30\nvalue = [1, 29]\nclass = positive", fillcolor="#40a0e6"] ;
205 -> 209 ;
210 [label="gini = 0.0\nsamples = 26\nvalue = [0, 26]\nclass = positive", fillcolor="#399de5"] ;
209 -> 210 ;
211 [label="MaxOfTestScore <= 74.7\ngini = 0.38\nsamples = 4\nvalue = [1, 3]\nclass = positive", fillcolor="#7bbeee"] ;
209 -> 211 ;
212 [label="gini = 0.0\nsamples = 1\nvalue = [1, 0]\nclass = negative", fillcolor="#e58139"] ;
211 -> 212 ;
213 [label="gini = 0.0\nsamples = 3\nvalue = [0, 3]\nclass = positive", fillcolor="#399de5"] ;
211 -> 213 ;
214 [label="MaxOfTestScore <= 86.0\ngini = 0.38\nsamples = 20\nvalue = [5, 15]\nclass = positive", fillcolor="#7bbeee"] ;
204 -> 214 ;
215 [label="Completion Time (days) <= 596.0\ngini = 0.33\nsamples = 19\nvalue = [4, 15]\nclass = positive", fillcolor="#6eb7ec"] ;
214 -> 215 ;
216 [label="Time to Test (days) <= 80.5\ngini = 0.43\nsamples = 13\nvalue = [4, 9]\nclass = positive", fillcolor="#91c9f1"] ;
215 -> 216 ;
217 [label="Time to Test (days) <= 51.17\ngini = 0.49\nsamples = 9\nvalue = [4, 5]\nclass = positive", fillcolor="#d7ebfa"] ;
216 -> 217 ;
218 [label="gini = 0.0\nsamples = 3\nvalue = [0, 3]\nclass = positive", fillcolor="#399de5"] ;
217 -> 218 ;
219 [label="MaxOfTestScore <= 77.65\ngini = 0.44\nsamples = 6\nvalue = [4, 2]\nclass = negative", fillcolor="#f2c09c"] ;
217 -> 219 ;
220 [label="gini = 0.0\nsamples = 3\nvalue = [3, 0]\nclass = negative", fillcolor="#e58139"] ;
219 -> 220 ;
221 [label="Cum GPA <= 3.38\ngini = 0.44\nsamples = 3\nvalue = [1, 2]\nclass = positive", fillcolor="#9ccef2"] ;
219 -> 221 ;
222 [label="gini = 0.0\nsamples = 2\nvalue = [0, 2]\nclass = positive", fillcolor="#399de5"] ;
221 -> 222 ;
223 [label="gini = 0.0\nsamples = 1\nvalue = [1, 0]\nclass = negative", fillcolor="#e58139"] ;
221 -> 223 ;
224 [label="gini = 0.0\nsamples = 4\nvalue = [0, 4]\nclass = positive", fillcolor="#399de5"] ;
216 -> 224 ;
225 [label="gini = 0.0\nsamples = 6\nvalue = [0, 6]\nclass = positive", fillcolor="#399de5"] ;
215 -> 225 ;
226 [label="gini = 0.0\nsamples = 1\nvalue = [1, 0]\nclass = negative", fillcolor="#e58139"] ;
214 -> 226 ;
227 [label="Bach <= 0.5\ngini = 0.06\nsamples = 69\nvalue = [2, 67]\nclass = positive", fillcolor="#3fa0e6"] ;
203 -> 227 ;
228 [label="MaxOfTestScore <= 75.0\ngini = 0.03\nsamples = 61\nvalue = [1, 60]\nclass = positive", fillcolor="#3c9fe5"] ;
227 -> 228 ;
229 [label="Time to Test (days) <= 66.0\ngini = 0.18\nsamples = 10\nvalue = [1, 9]\nclass = positive", fillcolor="#4fa8e8"] ;
228 -> 229 ;
230 [label="gini = 0.0\nsamples = 7\nvalue = [0, 7]\nclass = positive", fillcolor="#399de5"] ;
229 -> 230 ;
231 [label="MaxOfTestScore <= 74.35\ngini = 0.44\nsamples = 3\nvalue = [1, 2]\nclass = positive", fillcolor="#9ccef2"] ;
229 -> 231 ;
232 [label="gini = 0.0\nsamples = 2\nvalue = [0, 2]\nclass = positive", fillcolor="#399de5"] ;
231 -> 232 ;
233 [label="gini = 0.0\nsamples = 1\nvalue = [1, 0]\nclass = negative", fillcolor="#e58139"] ;
231 -> 233 ;
234 [label="gini = 0.0\nsamples = 51\nvalue = [0, 51]\nclass = positive", fillcolor="#399de5"] ;
228 -> 234 ;
235 [label="Completion Time (days) <= 476.5\ngini = 0.22\nsamples = 8\nvalue = [1, 7]\nclass = positive", fillcolor="#55abe9"] ;
227 -> 235 ;
236 [label="Cum GPA <= 3.67\ngini = 0.5\nsamples = 2\nvalue = [1, 1]\nclass = negative", fillcolor="#ffffff"] ;
235 -> 236 ;
237 [label="gini = 0.0\nsamples = 1\nvalue = [1, 0]\nclass = negative", fillcolor="#e58139"] ;
236 -> 237 ;
238 [label="gini = 0.0\nsamples = 1\nvalue = [0, 1]\nclass = positive", fillcolor="#399de5"] ;
236 -> 238 ;
239 [label="gini = 0.0\nsamples = 6\nvalue = [0, 6]\nclass = positive", fillcolor="#399de5"] ;
235 -> 239 ;
240 [label="MaxOfTestScore <= 77.65\ngini = 0.47\nsamples = 29\nvalue = [18, 11]\nclass = negative", fillcolor="#f5ceb2"] ;
172 -> 240 ;
241 [label="Time to Test (days) <= 633.5\ngini = 0.29\nsamples = 17\nvalue = [14, 3]\nclass = negative", fillcolor="#eb9c63"] ;
240 -> 241 ;
242 [label="MaxOfTestScore <= 71.0\ngini = 0.22\nsamples = 16\nvalue = [14, 2]\nclass = negative", fillcolor="#e99355"] ;
241 -> 242 ;
243 [label="MaxOfTestScore <= 69.35\ngini = 0.48\nsamples = 5\nvalue = [3, 2]\nclass = negative", fillcolor="#f6d5bd"] ;
242 -> 243 ;
244 [label="gini = 0.0\nsamples = 2\nvalue = [2, 0]\nclass = negative", fillcolor="#e58139"] ;
243 -> 244 ;
245 [label="Cum GPA <= 3.55\ngini = 0.44\nsamples = 3\nvalue = [1, 2]\nclass = positive", fillcolor="#9ccef2"] ;
243 -> 245 ;
246 [label="gini = 0.0\nsamples = 2\nvalue = [0, 2]\nclass = positive", fillcolor="#399de5"] ;
245 -> 246 ;
247 [label="gini = 0.0\nsamples = 1\nvalue = [1, 0]\nclass = negative", fillcolor="#e58139"] ;
245 -> 247 ;
248 [label="gini = 0.0\nsamples = 11\nvalue = [11, 0]\nclass = negative", fillcolor="#e58139"] ;
242 -> 248 ;
249 [label="gini = 0.0\nsamples = 1\nvalue = [0, 1]\nclass = positive", fillcolor="#399de5"] ;
241 -> 249 ;
250 [label="TEAS Count <= 2.0\ngini = 0.44\nsamples = 12\nvalue = [4, 8]\nclass = positive", fillcolor="#9ccef2"] ;
240 -> 250 ;
251 [label="Cum GPA <= 3.31\ngini = 0.2\nsamples = 9\nvalue = [1, 8]\nclass = positive", fillcolor="#52a9e8"] ;
250 -> 251 ;
252 [label="Cum GPA <= 3.28\ngini = 0.38\nsamples = 4\nvalue = [1, 3]\nclass = positive", fillcolor="#7bbeee"] ;
251 -> 252 ;
253 [label="gini = 0.0\nsamples = 3\nvalue = [0, 3]\nclass = positive", fillcolor="#399de5"] ;
252 -> 253 ;
254 [label="gini = 0.0\nsamples = 1\nvalue = [1, 0]\nclass = negative", fillcolor="#e58139"] ;
252 -> 254 ;
255 [label="gini = 0.0\nsamples = 5\nvalue = [0, 5]\nclass = positive", fillcolor="#399de5"] ;
251 -> 255 ;
256 [label="gini = 0.0\nsamples = 3\nvalue = [3, 0]\nclass = negative", fillcolor="#e58139"] ;
250 -> 256 ;
}